{
  "tests": [
    {
      "name": "Linear_0",
      "layer": "Linear",
      "settings": {
        "inputDimensions": 6,
        "outputDimensions": 4,
        "bias": true
      },
      "input": {
        "dtype": "float32",
        "shape": [
          3,
          6
        ],
        "data": [
          -2.2639992237091064,
          0.2936853766441345,
          1.8823225498199463,
          1.0323102474212646,
          0.3982114791870117,
          -1.2337827682495117,
          0.6020016074180603,
          1.665425419807434,
          0.65803062915802,
          0.06390533596277237,
          0.49134331941604614,
          1.0947154760360718,
          1.49895179271698,
          0.021735677495598793,
          -0.41120627522468567,
          1.4658297300338745,
          -0.7368471622467041,
          0.3716694414615631
        ]
      },
      "output": {
        "dtype": "float32",
        "shape": [
          3,
          4
        ],
        "data": [
          1.0532538890838623,
          0.4918738901615143,
          -0.13044768571853638,
          -0.16396337747573853,
          -0.16888676583766937,
          0.8324064016342163,
          0.4922129809856415,
          -0.16468262672424316,
          -0.15392537415027618,
          0.9134260416030884,
          1.0321083068847656,
          0.6673276424407959
        ]
      },
      "parameters": [
        {
          "path": "weight",
          "tensor": {
            "dtype": "float32",
            "shape": [
              4,
              6
            ],
            "data": [
              -0.3553565740585327,
              -0.006644457578659058,
              -0.1006697416305542,
              0.3092644214630127,
              0.18688005208969116,
              -0.01534658670425415,
              0.18811935186386108,
              0.2829023599624634,
              0.14002299308776855,
              0.130285382270813,
              -0.21228675544261932,
              -0.11566147208213806,
              -0.13471421599388123,
              0.05686357617378235,
              -0.302574098110199,
              0.3852508068084717,
              -0.15043625235557556,
              0.40687161684036255,
              0.10010761022567749,
              -0.19527749717235565,
              -0.3309391438961029,
              0.3479045033454895,
              0.37328869104385376,
              -0.05272775888442993
            ]
          },
          "trainable": true
        },
        {
          "path": "bias",
          "tensor": {
            "dtype": "float32",
            "shape": [
              4
            ],
            "data": [
              0.027562320232391357,
              0.37846219539642334,
              0.281599760055542,
              0.17011666297912598
            ]
          },
          "trainable": true
        }
      ]
    },
    {
      "name": "Linear_1",
      "layer": "Linear",
      "settings": {
        "inputDimensions": 5,
        "outputDimensions": 2,
        "bias": false
      },
      "input": {
        "dtype": "float32",
        "shape": [
          1,
          5
        ],
        "data": [
          -0.36025840044021606,
          1.4941715002059937,
          0.8172544240951538,
          -0.33664020895957947,
          0.4031541049480438
        ]
      },
      "output": {
        "dtype": "float32",
        "shape": [
          1,
          2
        ],
        "data": [
          0.2154776006937027,
          0.00993327796459198
        ]
      },
      "parameters": [
        {
          "path": "weight",
          "tensor": {
            "dtype": "float32",
            "shape": [
              2,
              5
            ],
            "data": [
              0.2837705612182617,
              0.06359726190567017,
              0.3079356551170349,
              0.2220858335494995,
              0.11356538534164429,
              -0.205132395029068,
              0.08798062801361084,
              -0.19431060552597046,
              0.3917490243911743,
              0.23627227544784546
            ]
          },
          "trainable": true
        }
      ]
    },
    {
      "name": "Conv1d_2",
      "layer": "Conv1d",
      "settings": {
        "in_channels": 3,
        "out_channels": 2,
        "kernel_size": 3,
        "stride": 1,
        "padding": 1,
        "bias": true
      },
      "input": {
        "dtype": "float32",
        "shape": [
          2,
          8,
          3
        ],
        "data": [
          0.4976969063282013,
          -0.6829385757446289,
          1.169766902923584,
          1.0384752750396729,
          0.4261683225631714,
          -1.2324413061141968,
          -0.8028581738471985,
          1.5040544271469116,
          0.9568018913269043,
          -0.10375607013702393,
          -0.1771613210439682,
          0.6778337955474854,
          -0.703732967376709,
          0.21098735928535461,
          -0.622979462146759,
          1.291867733001709,
          0.6525897979736328,
          -0.4210086464881897,
          -0.4214121699333191,
          0.6867956519126892,
          0.3561652600765228,
          0.2157418131828308,
          -0.9001952409744263,
          -1.868574619293213,
          0.3211730718612671,
          0.7842056751251221,
          1.9921815395355225,
          -0.0002332985313842073,
          0.05472007393836975,
          -0.7687164545059204,
          -0.07848509401082993,
          0.3592345118522644,
          -0.43657734990119934,
          0.4039798974990845,
          0.052710942924022675,
          -0.3989816904067993,
          -0.16556116938591003,
          -1.1983952522277832,
          0.05712764337658882,
          -0.4268936216831207,
          -1.5738905668258667,
          0.46674156188964844,
          -1.368618369102478,
          -0.40042126178741455,
          0.8598260283470154,
          1.0882275104522705,
          -0.9178739786148071,
          -0.7358776330947876
        ]
      },
      "output": {
        "dtype": "float32",
        "shape": [
          2,
          8,
          2
        ],
        "data": [
          0.44935616850852966,
          -1.0484340190887451,
          0.2597559988498688,
          -0.039210766553878784,
          -0.28236597776412964,
          0.5073049068450928,
          -0.517609715461731,
          0.26618775725364685,
          -0.030604258179664612,
          -0.5098444223403931,
          0.6273096203804016,
          -0.01939552091062069,
          -1.3168556690216064,
          -0.04389803856611252,
          -0.3611626625061035,
          0.3089068830013275,
          0.18700112402439117,
          -0.4787929952144623,
          -0.9639124274253845,
          0.10441244393587112,
          0.0006669308640994132,
          -0.11500666290521622,
          -0.3632056415081024,
          0.4513282775878906,
          -0.3648245930671692,
          0.604375958442688,
          0.45062172412872314,
          0.34564095735549927,
          0.19527216255664825,
          -0.6050684452056885,
          0.5837447047233582,
          -0.2901829183101654
        ]
      },
      "parameters": [
        {
          "path": "weight",
          "tensor": {
            "dtype": "float32",
            "shape": [
              2,
              3,
              3
            ],
            "data": [
              -0.3185108006000519,
              -0.3142729699611664,
              -0.2237538993358612,
              0.21918240189552307,
              -0.129899263381958,
              0.19484040141105652,
              0.18680062890052795,
              0.3002796471118927,
              0.24205520749092102,
              0.015719890594482422,
              0.24350294470787048,
              -0.014285564422607422,
              -0.1754784882068634,
              0.07674470543861389,
              -0.13931792974472046,
              -0.3189524710178375,
              -0.25291040539741516,
              0.24886444211006165
            ]
          },
          "trainable": true
        },
        {
          "path": "bias",
          "tensor": {
            "dtype": "float32",
            "shape": [
              2
            ],
            "data": [
              0.0,
              0.0
            ]
          },
          "trainable": true
        }
      ]
    },
    {
      "name": "Conv2d_3",
      "layer": "Conv2d",
      "settings": {
        "in_channels": 2,
        "out_channels": 3,
        "kernel_size": [
          3,
          3
        ],
        "stride": [
          1,
          1
        ],
        "padding": [
          1,
          1
        ],
        "bias": true
      },
      "input": {
        "dtype": "float32",
        "shape": [
          2,
          6,
          6,
          2
        ],
        "data": [
          0.09193234890699387,
          -0.1278221160173416,
          1.6613601446151733,
          -0.30481791496276855,
          -1.397878885269165,
          1.6708649396896362,
          0.1567300707101822,
          0.46337977051734924,
          0.020596494898200035,
          -0.32534292340278625,
          -0.8615602850914001,
          1.1469992399215698,
          -0.43201687932014465,
          -0.06383542716503143,
          -0.3805428743362427,
          0.38847774267196655,
          -0.8925193548202515,
          -0.6401829719543457,
          1.4138213396072388,
          0.5717563629150391,
          -0.8627114295959473,
          1.5258710384368896,
          0.38827961683273315,
          -0.9579233527183533,
          -1.3409267663955688,
          -0.168023020029068,
          1.4217784404754639,
          -0.8735422492027283,
          -2.1676411628723145,
          -0.21687275171279907,
          1.142386794090271,
          -0.43039774894714355,
          -0.07442042231559753,
          1.2501709461212158,
          -0.34450069069862366,
          0.26109156012535095,
          0.6103916168212891,
          1.17377769947052,
          -0.7123880386352539,
          1.2562391757965088,
          -0.5633159875869751,
          0.4442388117313385,
          0.10357453674077988,
          -0.9778946042060852,
          0.5359761714935303,
          0.2976261079311371,
          0.9882614612579346,
          -0.07175499200820923,
          -0.3757116198539734,
          0.42027655243873596,
          -0.002012434648349881,
          -1.159937858581543,
          -0.2811276614665985,
          1.052418828010559,
          -0.5170347690582275,
          -1.420466661453247,
          -0.22420674562454224,
          0.8011029362678528,
          -0.24028772115707397,
          -0.344528466463089,
          -1.1533925533294678,
          0.5338835716247559,
          -2.237734317779541,
          -0.6375999450683594,
          0.474971204996109,
          -0.10833273828029633,
          0.5661119222640991,
          1.4110249280929565,
          0.5974591970443726,
          0.1969393491744995,
          -1.40187406539917,
          -0.14300307631492615,
          0.22823116183280945,
          0.27774518728256226,
          0.2849992513656616,
          0.3600233495235443,
          -1.433307409286499,
          0.7109511494636536,
          0.3113955855369568,
          0.6034151911735535,
          -1.9112322330474854,
          -1.0585107803344727,
          0.5059875845909119,
          -1.5179650783538818,
          0.7744648456573486,
          1.799588680267334,
          -1.5001251697540283,
          0.40204864740371704,
          2.23531174659729,
          0.976333737373352,
          0.06050708889961243,
          -0.8345297574996948,
          -2.1363565921783447,
          -1.4210104942321777,
          -0.6045845746994019,
          -0.12510299682617188,
          0.8892248272895813,
          1.4902921915054321,
          0.07135715335607529,
          -0.22978724539279938,
          -0.1733832061290741,
          0.41293200850486755,
          0.22229181230068207,
          1.7109880447387695,
          -1.224168300628662,
          -1.2515692710876465,
          -0.5798137187957764,
          -0.2928277850151062,
          0.2602468430995941,
          1.8520554304122925,
          0.09169872850179672,
          -0.6091610193252563,
          -0.46190887689590454,
          -0.13662433624267578,
          1.142818808555603,
          -0.07156004011631012,
          -0.2060939371585846,
          1.4895386695861816,
          -2.0308897495269775,
          -1.2544677257537842,
          -0.9856098294258118,
          0.5373418927192688,
          -0.6622695326805115,
          -0.346598744392395,
          0.012040004134178162,
          0.3898848593235016,
          0.04661225900053978,
          -1.9815343618392944,
          1.9983502626419067,
          1.914894700050354,
          0.31209057569503784,
          -0.17339587211608887,
          0.3692686855792999,
          0.14692114293575287,
          -0.07556413114070892,
          0.33570003509521484,
          0.060562171041965485,
          0.5804570317268372,
          0.13416710495948792,
          0.5594953298568726,
          -0.27097630500793457,
          -1.2066048383712769,
          2.576598882675171,
          -1.5681020021438599
        ]
      },
      "output": {
        "dtype": "float32",
        "shape": [
          2,
          6,
          6,
          3
        ],
        "data": [
          -0.3332276940345764,
          -0.21238544583320618,
          0.2937753200531006,
          0.48783761262893677,
          0.37576329708099365,
          -0.13406214118003845,
          -0.26710018515586853,
          -0.2840365171432495,
          0.14896303415298462,
          0.5206045508384705,
          -0.39681291580200195,
          -0.20417317748069763,
          -0.44891050457954407,
          -0.09025292843580246,
          -0.287493497133255,
          -0.2015313357114792,
          -0.5259472131729126,
          -0.2571401298046112,
          -0.5762284398078918,
          -0.3727026581764221,
          -0.139048770070076,
          0.8089754581451416,
          -0.13278718292713165,
          -0.2546245753765106,
          -0.8176623582839966,
          0.4615880846977234,
          0.9969164729118347,
          0.5714758634567261,
          -0.41715189814567566,
          -0.3576154410839081,
          -0.012314206920564175,
          -0.0077307382598519325,
          -0.14627087116241455,
          -0.214981809258461,
          -0.14721432328224182,
          -0.1297817975282669,
          -0.2683475613594055,
          -0.11206193268299103,
          0.35965293645858765,
          0.15752919018268585,
          0.5485294461250305,
          -1.1310471296310425,
          -0.8827577233314514,
          -0.5002805590629578,
          0.5123847126960754,
          -0.09026612341403961,
          -0.7916744351387024,
          -0.5937068462371826,
          0.10704028606414795,
          0.9731625318527222,
          0.3429459035396576,
          0.11273625493049622,
          -0.9970790147781372,
          -0.19963447749614716,
          -0.1427873969078064,
          0.05502307787537575,
          -0.1108681857585907,
          0.5252799391746521,
          -0.7533657550811768,
          -0.1855880618095398,
          -0.033512040972709656,
          0.7173916697502136,
          0.49894434213638306,
          -0.15737862884998322,
          -1.3766199350357056,
          -0.3440806269645691,
          -0.14816997945308685,
          0.9725708365440369,
          0.4669543206691742,
          0.14353397488594055,
          -0.08972267061471939,
          -0.15310785174369812,
          -0.3231985867023468,
          0.13022267818450928,
          -0.39877843856811523,
          -0.1593778133392334,
          0.1110234335064888,
          0.48005473613739014,
          0.31165847182273865,
          0.40805360674858093,
          -0.2559328079223633,
          -0.035683419555425644,
          -0.600973904132843,
          0.16953803598880768,
          -0.5554910898208618,
          -0.2531268894672394,
          -0.9043864607810974,
          -0.3034548759460449,
          -0.4157671630382538,
          -0.18691326677799225,
          0.22769726812839508,
          0.486411452293396,
          -0.39776262640953064,
          -0.31811121106147766,
          -0.900129497051239,
          0.38835668563842773,
          -0.5423562526702881,
          0.1391298621892929,
          0.13059712946414948,
          0.2058493047952652,
          -0.4023309051990509,
          -0.08428020775318146,
          0.5020889639854431,
          0.42634010314941406,
          -0.3099753260612488,
          -0.06766094267368317,
          -0.24446989595890045,
          0.3955385982990265,
          -0.03930558264255524,
          0.01197053026407957,
          -0.11311732977628708,
          -0.2908432185649872,
          -0.3502993583679199,
          -0.9889342784881592,
          -0.11061986535787582,
          -0.3544199764728546,
          0.4223960041999817,
          0.08805075287818909,
          -0.2004224807024002,
          -1.2015864849090576,
          -0.20165742933750153,
          0.030911050736904144,
          0.7230948805809021,
          0.15316466987133026,
          0.4862370193004608,
          0.42095181345939636,
          0.16000765562057495,
          0.050186242908239365,
          -0.9990518093109131,
          -0.5808892846107483,
          -1.1184895038604736,
          0.6713313460350037,
          0.31917431950569153,
          0.2324436753988266,
          -0.8780567049980164,
          0.5668467879295349,
          0.9922102689743042,
          -0.250580370426178,
          -0.25374794006347656,
          0.1208864226937294,
          0.6802843809127808,
          -0.22967223823070526,
          -0.42639368772506714,
          -0.09279797226190567,
          -0.3958381116390228,
          0.36427631974220276,
          -0.7164276838302612,
          0.027221133932471275,
          -0.7862341403961182,
          -0.06623942404985428,
          -0.7230001091957092,
          -0.8845502138137817,
          -0.1886635571718216,
          1.1624934673309326,
          0.8987293243408203,
          -0.3136883080005646,
          0.34912365674972534,
          0.5609655976295471,
          0.8298486471176147,
          -0.7898048162460327,
          -0.5465098023414612,
          -0.43172433972358704,
          -0.6208962798118591,
          -0.09883662313222885,
          -0.8207630515098572,
          0.4774323105812073,
          -0.31542080640792847,
          0.10594210773706436,
          -0.5262399315834045,
          0.015443847514688969,
          0.4716812074184418,
          0.263807088136673,
          0.06438935548067093,
          0.014397608116269112,
          1.1682502031326294,
          1.1330565214157104,
          -0.08598582446575165,
          -0.537350594997406,
          -0.9090538024902344,
          0.04521697387099266,
          -0.27525854110717773,
          0.15075673162937164,
          -0.26314815878868103,
          -0.09945006668567657,
          -0.5941784977912903,
          0.035207200795412064,
          -0.24726510047912598,
          0.08229003846645355,
          -0.7473046183586121,
          -0.6540681719779968,
          -0.915910542011261,
          0.788623571395874,
          -0.28093260526657104,
          1.2483611106872559,
          -0.3383837938308716,
          1.695623755455017,
          0.2984144687652588,
          1.3551607131958008,
          0.1492069512605667,
          0.4519750475883484,
          0.22809769213199615,
          0.05567285045981407,
          -0.3250875473022461,
          0.12989185750484467,
          -0.24787268042564392,
          -0.08287203311920166,
          0.030754242092370987,
          0.24864675104618073,
          -0.834067702293396,
          -0.7034019827842712,
          -0.9528154730796814,
          -0.18086360394954681,
          0.17403925955295563,
          0.48857492208480835,
          0.7950689196586609,
          -0.041497014462947845
        ]
      },
      "parameters": [
        {
          "path": "weight",
          "tensor": {
            "dtype": "float32",
            "shape": [
              3,
              3,
              3,
              2
            ],
            "data": [
              0.08129172027111053,
              -0.009498313069343567,
              -0.10071323812007904,
              -0.13985013961791992,
              -0.12059911340475082,
              0.046848103404045105,
              0.13532568514347076,
              0.0911722332239151,
              0.15789271891117096,
              -0.058254361152648926,
              -0.2260117381811142,
              -0.01598365604877472,
              -0.08731687068939209,
              -0.1609186977148056,
              0.15432529151439667,
              -0.1445690244436264,
              -0.0689130425453186,
              0.1200675517320633,
              0.219185933470726,
              -0.13604828715324402,
              -0.22828565537929535,
              0.11067484319210052,
              -0.19891375303268433,
              -0.11026701331138611,
              0.16807620227336884,
              -0.19130420684814453,
              0.13041873276233673,
              -0.1190563216805458,
              -0.15828312933444977,
              -0.13427741825580597,
              -0.03318220376968384,
              -0.2098265439271927,
              0.0062742680311203,
              0.055977270007133484,
              -0.013376742601394653,
              -0.042124852538108826,
              0.10524381697177887,
              -0.013271689414978027,
              -0.1983003318309784,
              -0.0314127653837204,
              -0.11636494845151901,
              -0.06218825280666351,
              0.16327519714832306,
              0.029993489384651184,
              -0.1686180979013443,
              -0.21997222304344177,
              0.21924035251140594,
              0.18487237393856049,
              -0.09632799029350281,
              -0.22784286737442017,
              0.04452122747898102,
              -0.1081060916185379,
              -0.029271438717842102,
              -0.0657217800617218
            ]
          },
          "trainable": true
        },
        {
          "path": "bias",
          "tensor": {
            "dtype": "float32",
            "shape": [
              3
            ],
            "data": [
              0.0,
              0.0,
              0.0
            ]
          },
          "trainable": true
        }
      ]
    }
  ]
}